digraph Tree {
node [shape=box] ;
0 [label="X[3] <= 0.5\nentropy = 0.998\nsamples = 42\nvalue = [20, 22]"] ;
1 [label="X[0] <= 1.5\nentropy = 0.755\nsamples = 23\nvalue = [5, 18]"] ;
0 -> 1 [labeldistance=2.5, labelangle=45, headlabel="True"] ;
2 [label="X[1] <= 0.5\nentropy = 0.852\nsamples = 18\nvalue = [5, 13]"] ;
1 -> 2 ;
3 [label="entropy = 0.0\nsamples = 2\nvalue = [0, 2]"] ;
2 -> 3 ;
4 [label="X[1] <= 1.5\nentropy = 0.896\nsamples = 16\nvalue = [5, 11]"] ;
2 -> 4 ;
5 [label="X[0] <= 0.5\nentropy = 0.971\nsamples = 10\nvalue = [4, 6]"] ;
4 -> 5 ;
6 [label="X[2] <= 0.5\nentropy = 1.0\nsamples = 6\nvalue = [3, 3]"] ;
5 -> 6 ;
7 [label="entropy = 1.0\nsamples = 4\nvalue = [2, 2]"] ;
6 -> 7 ;
8 [label="entropy = 1.0\nsamples = 2\nvalue = [1, 1]"] ;
6 -> 8 ;
9 [label="X[2] <= 0.5\nentropy = 0.811\nsamples = 4\nvalue = [1, 3]"] ;
5 -> 9 ;
10 [label="entropy = 0.0\nsamples = 2\nvalue = [0, 2]"] ;
9 -> 10 ;
11 [label="entropy = 1.0\nsamples = 2\nvalue = [1, 1]"] ;
9 -> 11 ;
12 [label="X[2] <= 0.5\nentropy = 0.65\nsamples = 6\nvalue = [1, 5]"] ;
4 -> 12 ;
13 [label="entropy = 0.0\nsamples = 3\nvalue = [0, 3]"] ;
12 -> 13 ;
14 [label="entropy = 0.918\nsamples = 3\nvalue = [1, 2]"] ;
12 -> 14 ;
15 [label="entropy = 0.0\nsamples = 5\nvalue = [0, 5]"] ;
1 -> 15 ;
16 [label="X[0] <= 1.5\nentropy = 0.742\nsamples = 19\nvalue = [15, 4]"] ;
0 -> 16 [labeldistance=2.5, labelangle=-45, headlabel="False"] ;
17 [label="X[1] <= 1.5\nentropy = 0.414\nsamples = 12\nvalue = [11, 1]"] ;
16 -> 17 ;
18 [label="entropy = 0.0\nsamples = 7\nvalue = [7, 0]"] ;
17 -> 18 ;
19 [label="X[2] <= 0.5\nentropy = 0.722\nsamples = 5\nvalue = [4, 1]"] ;
17 -> 19 ;
20 [label="entropy = 0.0\nsamples = 2\nvalue = [2, 0]"] ;
19 -> 20 ;
21 [label="entropy = 0.918\nsamples = 3\nvalue = [2, 1]"] ;
19 -> 21 ;
22 [label="X[1] <= 0.5\nentropy = 0.985\nsamples = 7\nvalue = [4, 3]"] ;
16 -> 22 ;
23 [label="entropy = 0.0\nsamples = 1\nvalue = [0, 1]"] ;
22 -> 23 ;
24 [label="X[1] <= 1.5\nentropy = 0.918\nsamples = 6\nvalue = [4, 2]"] ;
22 -> 24 ;
25 [label="X[2] <= 0.5\nentropy = 0.971\nsamples = 5\nvalue = [3, 2]"] ;
24 -> 25 ;
26 [label="entropy = 1.0\nsamples = 2\nvalue = [1, 1]"] ;
25 -> 26 ;
27 [label="entropy = 0.918\nsamples = 3\nvalue = [2, 1]"] ;
25 -> 27 ;
28 [label="entropy = 0.0\nsamples = 1\nvalue = [1, 0]"] ;
24 -> 28 ;
}